	0	1	2	3	4	5	6	7	8	9	10	11	12	13	14	15	16	17	18	19	20	21	22	23	24	25	26	27	28	29	30	31	32	33	34	35	36	37	38	39	40	41	42	43	44	45	46	47	48	49	50	51	52	53	54	55	56	57	58	59	60	61	62	63	64	65	66	67	68	69	70	71	72	73	74	75	76	77	78	79	80	81	82	83	84	85	86	87	88	89	90	91	92	93	94	95	96	97	98	99
BFO:0000019	0.12113901	-0.10878129	-0.1188595	-0.049955294	0.08135568	0.010098708	0.033684567	-0.16211842	0.009499068	-0.10714768	-0.01851339	0.0020387573	0.16261676	-0.13587333	-0.03575565	0.10197916	0.053567916	-0.01224945	-0.009627662	0.059688535	-0.13276248	-0.060025066	-0.078050986	-0.05307719	0.10046771	0.052133992	-0.081412606	-0.03432806	0.16142482	-0.09841265	0.105052285	-0.11938555	0.16330542	-0.16021171	-0.15709244	-0.14440238	0.08409744	0.061987493	0.10725244	-0.09390189	0.028039832	-0.13368264	0.092115216	-0.15858735	0.1620589	0.082916565	0.123217404	-0.11091152	-0.13215414	-0.057008337	-0.12211384	-0.056226924	-0.15382612	-0.06545909	-0.14213721	-0.041437812	-0.13958572	-0.102720685	-0.09062304	0.10917756	-0.19251746	0.042995006	0.04296654	-0.037723105	0.01758187	0.051941797	-0.116088115	-0.13033766	0.15013859	-0.011931341	0.09838155	-0.17859662	0.16552448	-0.04184454	0.011687931	-0.07180719	-0.030583523	0.030923644	0.05314407	-0.06577282	0.00521653	-0.068317235	-0.007439534	-0.15105787	-0.13404763	0.035635617	-0.02295828	-0.06863892	-0.08075229	0.13202064	-0.023139423	0.09938878	0.06106804	0.08317687	0.05449533	0.028216045	0.15693375	-0.14012738	-0.07684828	0.14330962
BFO:0000015	-0.064423114	0.11772419	0.01449501	0.086531185	0.0006379921	0.02864378	0.049022235	-0.009894928	0.17230444	-0.14509363	0.08843505	0.17962536	0.06699771	0.09606023	-0.007840073	0.120676965	0.05159299	0.04083944	0.04916108	-0.10341506	0.07942217	-0.10567324	0.08084566	-0.06369246	-0.17336375	0.112298205	0.07194364	0.08862	0.15375084	0.04053377	0.09682408	0.03841414	-0.14419273	0.15422747	0.024537347	0.08722454	0.03189844	0.050969824	-0.11355352	0.026850594	-0.0056585753	0.15219763	-0.124415785	-0.10395111	0.08246732	0.10642184	0.13364899	0.10529901	-0.100399174	0.00872337	0.13245486	-0.09976407	0.049714364	-0.007256408	-0.029161029	0.14302836	-0.06662676	-0.14503734	-0.048755404	0.12380392	0.1249081	0.0881685	-0.17573556	-0.103390485	-0.15089811	-0.08606244	0.06089734	-0.16981608	-0.1570649	-0.013892301	-0.12815045	0.016672723	-0.11665865	0.10359675	-0.12500288	0.123353995	0.029283378	-0.01749392	0.06043188	0.107143015	0.020924063	-0.109810635	0.07951481	-0.041936796	0.06396108	-0.13104385	0.03683216	0.14273493	-0.13353392	0.14809592	0.106186956	-0.11807005	0.053762045	-0.009791971	0.13098158	0.11970294	0.016631952	-0.054789044	0.11395579	0.15240295
BFO:0000016	-0.056778386	-0.07904108	-0.031957503	-0.038393255	-0.035287812	0.1288545	-0.119036935	0.04189476	-0.017886108	0.09447822	0.1064985	0.15319036	0.039839495	-0.08042125	-0.13785301	0.10894106	-0.085273914	0.13173419	0.06904025	0.12613574	-0.06988478	0.09396536	-0.15552181	0.07413798	-0.14426228	0.014918961	-0.098218024	-0.07939675	-0.079655044	0.073537976	-0.101019725	0.050232608	-0.1625058	0.102687076	-0.006102665	-0.12738447	0.20414396	0.042009618	-0.14354564	-0.047366522	-0.121026024	0.035035953	0.06930815	0.06403103	0.081241846	-0.1901455	-0.09686678	0.11926052	0.030920506	0.08096528	-0.12226326	-0.05524978	-0.0039842725	-0.05262224	0.18486717	0.06253237	-0.03624198	-0.029126108	-0.10721446	-0.0094857	-0.13562252	0.072209954	0.14853324	0.1928345	-0.08896183	0.09486566	0.13564083	-0.038020603	0.08963195	0.06354173	-0.17912678	0.029492203	-0.1112221	-0.012176482	-0.128877	-0.12691483	-0.11125222	0.08941966	-0.04508599	-0.028139869	-0.1615123	-0.039518554	-0.09357939	0.030674536	0.04203932	0.16043343	-0.05455162	0.11104935	0.0042949268	-0.08187001	0.13716923	-0.06551322	-0.08924499	0.12682004	0.16514541	-0.010478324	-0.14088997	0.099423155	-0.07731992	-0.0114864465
BFO:0000017	0.11235782	0.051297337	0.108881444	-0.13175869	-0.14318283	-0.022465944	0.155819	-0.09974578	-0.090994455	0.14615087	-0.05733879	0.10093506	0.115477316	0.082341336	-0.06524897	-0.07374864	0.16101556	-0.084336154	0.019198911	0.099508986	0.07777834	0.15697208	0.0933816	0.053251725	-0.11561163	0.052552193	-0.10755818	-0.027844576	-0.070499435	-0.07695339	0.12130043	-0.053757437	-0.13152857	-0.06031787	0.02476854	-0.12511787	0.1384218	0.02552184	-0.05465455	0.09223571	0.02656781	0.15196905	-0.038843602	0.028539548	0.112145215	-0.1150278	0.116665	0.041931666	-0.029986456	0.15687802	0.02433277	-0.15606144	-0.13174528	-0.012635273	0.1323963	-0.033708163	0.16089162	0.0912832	-0.15061276	-0.015431225	0.13490954	-0.13271426	0.035914127	0.072651364	0.006923389	-0.06392771	-0.1005712	-0.1367975	0.15122359	0.116842866	0.032416787	0.15290144	-0.052799508	0.021593075	-0.058882434	0.13330813	-0.10652533	-0.0006455653	-0.14241321	-0.028587209	-0.12775072	-0.114468455	0.16052537	0.14724547	0.113781594	0.15191261	0.071278565	-0.06439823	-0.04717086	0.074089095	-0.1371993	-0.03856658	0.12915388	-0.014800434	0.004966333	-0.13093896	-0.02421143	-0.15811606	-0.0467888	-0.0047659
BFO:0000018	0.16569175	-0.09592902	0.058273904	0.13624331	-0.12427922	0.049783193	-0.09523571	0.00036469262	0.107173026	-0.04800346	0.02113582	-0.022231935	0.09346961	-0.028825702	0.126674	0.14913383	-0.030378822	0.10319346	-0.18574254	-0.16490123	0.093818195	0.1358613	0.03753471	0.021517476	-0.032337315	0.071598746	-0.14177646	0.076882444	-0.099960074	0.060823325	0.09810909	0.11268738	-0.0847977	0.08660986	-0.16575663	-0.07418165	-0.07563192	-0.12040015	-0.14163518	-0.047342956	0.083467886	0.07066828	-0.07087254	-0.10510392	-0.002512287	-0.10488623	-0.09236598	-0.065544546	0.0019750667	0.058811788	0.07624391	0.12523176	-0.00078198785	0.15198918	-0.13511856	-0.076312274	0.024030007	0.0047836117	-0.004201952	0.020964168	0.07053457	0.15436998	0.024931591	0.038676027	-0.043970626	-0.0014740456	0.07950053	-0.16516136	0.041839805	-0.10034122	-0.059161566	0.094645955	-0.16454011	0.15635969	0.106489286	-0.079906516	-0.12383573	0.10251066	0.1809976	0.12619713	0.13709438	0.08071886	-0.10059563	0.10801486	0.17194447	0.09700416	0.10679977	0.17748888	0.06747474	-0.09641386	-0.12931943	-0.09474427	-0.10617851	-0.10079818	0.014615821	-0.09368179	-0.07157198	0.09984546	0.12878117	-0.02863277
BFO:0000011	-0.13260375	-0.08989388	0.12819125	-0.015469154	0.054597117	-0.13193673	0.13384101	0.17849027	-0.10992069	-0.085114606	0.17827527	-0.026655346	-0.08391581	-0.060241353	0.069935225	0.13760914	-0.10932286	0.078975715	0.20146471	0.05945828	-0.0804674	-0.0023892792	0.07903415	0.18178488	-0.10755763	-0.08803213	0.108867764	-0.07825799	-0.10987457	0.0941379	-0.09199118	-0.16904484	0.15667859	0.16465436	0.096944615	-0.14754246	-0.14484462	-0.02332554	0.11713342	0.121986136	0.014486207	0.03418284	0.009904537	-0.040972903	-0.11377207	0.080703355	0.0020685361	0.110649034	-0.060096074	0.13067086	-0.12976216	-0.06849998	-0.016652009	0.08077675	-0.025107551	-0.028703608	0.07435641	-0.10360876	0.15572785	0.03140682	-0.03530248	-0.14012429	-0.109480694	0.008383539	0.14364836	-0.0014602649	-0.10260325	-0.0022468541	0.036356352	-0.031966038	-0.022241557	-0.042435806	-0.10813548	-0.1661824	-0.042137023	0.097613335	-0.15690066	0.16138338	-0.076101445	0.063649	-0.108282164	-0.061895248	0.0769409	-0.09349501	0.16223797	0.12697263	0.08369461	0.07276955	0.00090866996	-0.02216063	0.053382106	0.08109096	-0.044932507	-0.14242667	0.0830756	0.1352438	0.043779604	0.10304723	-0.057073735	-0.0038657577
IAO:0000116	0.060627323	0.1968281	-0.0003545642	0.124855496	0.10543273	-0.0031984963	-0.038714614	0.18594836	0.04733502	0.033608012	0.056984194	0.17665318	0.059354573	0.10802414	0.11670693	0.003203987	0.18018742	0.17835864	-0.19646204	0.14314684	-0.16561863	0.16734414	0.13498609	-0.0013652766	-0.13122591	0.026085993	-0.06993268	-0.22125828	-0.13911521	0.18557996	0.13322683	-0.23444602	-0.08396991	0.0046999324	0.23909374	-0.22289996	-0.009427085	-0.12778376	0.04671427	0.09804997	-0.22061047	-0.15132876	-0.088346355	0.04907309	0.17471762	0.0760483	0.095663115	0.061216705	0.08871488	-0.21229558	0.11329384	0.17432854	-0.03178192	-0.192578	-0.032630887	-0.060978383	0.22350495	0.12576619	0.1585787	0.20521387	0.034562822	0.056045968	0.17815822	0.12672323	-0.06519472	0.20667097	-0.035470553	0.18374316	0.1623522	-0.100358784	-0.23159473	-0.15434314	0.11773892	-0.21447372	0.013312221	0.19829905	0.202872	-0.047408678	-0.19032048	0.22637248	-0.2442133	-0.0762313	-0.2323621	-0.14844628	0.1258565	0.1928744	0.0073897718	-0.042776857	-0.059543014	0.16918331	0.0857224	0.1826692	-0.09050412	-0.10501397	-0.10791328	-0.12159338	0.12494497	-0.045221422	-0.11517928	-0.11793063
IAO:0000117	0.2028933	-0.16507037	0.21274313	-0.076680966	0.11694817	0.010044156	0.20103271	0.10741578	0.05280156	0.098444775	0.11041491	-0.12119349	-0.20892191	0.06152734	-0.0744013	0.10704322	0.23142843	0.11231612	0.2406766	0.05447467	0.10454293	0.20613012	-0.007073351	-0.22282736	0.23202594	-0.032834046	-0.13176593	-0.17196873	0.1650042	0.14016202	-0.10689825	0.21498759	-0.11252284	-0.11136873	0.02980705	-0.057118945	0.24458914	-0.23501787	0.11512606	-0.10317812	0.117388606	-0.22231007	0.034846067	-0.23237625	0.019930305	-0.07086249	0.10663819	-0.15623239	0.04997813	0.07515453	-0.1754295	0.24156447	0.054471634	0.2359606	-0.14452364	-0.0597349	0.01753247	0.09904882	0.074485704	-0.045911625	0.096460626	-0.09252204	-0.050333045	-0.03761383	0.09739675	0.06322873	-0.09722337	0.124982774	-0.10966221	0.07369906	-0.23181215	0.23104891	-0.048571087	-0.083416924	-0.12749638	-0.01221132	-0.1436915	-0.20374146	-0.017665474	0.021923926	0.117803395	-0.14747225	-0.08930549	0.1311377	-0.18340105	0.23750047	0.108545765	0.07246819	-0.043200288	0.099108174	0.09954516	0.16435026	0.20462355	-0.22992647	-0.05569514	0.028636286	0.15792337	0.11441127	-0.10302736	-0.18201287
IAO:0000115	0.028987756	0.015567588	0.016044002	-0.10072632	0.18714145	0.010955391	-0.008244348	-0.18204138	0.16667987	-0.08969358	0.24255474	-0.07514121	0.08810792	0.2253265	0.23381412	-0.1270355	-0.16354042	-0.05046208	-0.063505545	-0.24311844	0.032807585	-0.18024287	-0.1578803	0.11126002	-0.110883094	-0.0009466338	0.19538514	-0.060034495	-0.15272745	0.10915531	0.070388645	-0.021952312	-0.16534509	-0.11339606	0.20908317	-0.12425308	0.2276864	0.12545013	-0.17183548	-0.22931798	-0.014099387	0.09309442	-0.22587335	0.14077303	-0.10233569	-0.08005364	-0.1861177	-0.053935755	0.013091597	-0.081236266	0.22368917	-0.14909956	-0.18329006	0.017727451	-0.24402797	0.142048	-0.12310177	0.0291877	-0.20155163	0.20871449	0.13593163	-0.22830626	-0.0999034	0.08442541	0.09955292	-0.19042744	-0.10380238	0.067609146	0.10935472	0.10643701	-0.040556185	-0.026771585	-0.2175297	0.039732333	0.010091527	-0.19871786	0.13588192	-0.04994764	-0.11755766	0.043570973	0.11280259	-0.2224708	-0.09899263	-0.053426456	0.1832351	0.1521866	-0.017435854	-0.19639674	0.097291015	-0.20182471	-0.22230959	0.19286412	-0.1534101	0.12722506	-0.07886723	-0.23794551	0.13131651	0.02414518	0.20490953	0.018062739
BFO:0000179	-0.058004953	-0.06988852	-0.122884765	0.026569184	0.148493	0.1904727	0.2206696	-0.060772188	0.07153575	0.089332126	0.22300914	0.0027640236	-0.005181544	-0.021989755	0.2090379	0.22448418	0.21528104	0.23673809	-0.0021234131	0.077367544	0.0738944	0.16811016	-0.14515439	-0.22300962	0.096677504	-0.12570131	-0.17688243	0.08008121	-0.1166327	0.07363066	-0.1706455	0.2378461	-0.19401553	0.15634033	-0.16789088	-0.1887656	-0.22842877	0.11446097	-0.010632837	0.22694328	-0.084219106	0.04691019	-0.14215548	-0.11807086	0.009774114	-0.060939074	-0.21249136	0.07952641	-0.1442727	-0.015637975	-0.16178758	0.09831084	0.22033425	-0.19912015	0.20564921	-0.029091964	0.16634831	0.0785244	-0.03940762	-0.098737255	0.21548292	0.21528968	-0.16908506	-0.22217028	-0.18046144	-0.085794955	-0.071893	0.037835445	0.121580936	0.21886821	0.054909088	0.19470575	0.1719724	-0.118501484	0.053203028	-0.091794096	-0.100915514	0.021959964	0.14559802	0.2339088	-0.1911576	0.20378499	-0.15581834	-0.0652578	0.020044792	-0.12355487	-0.028790146	0.044925153	-0.17090654	0.16951334	-0.19018023	0.039274324	-0.22260061	-0.05676304	-0.08401232	-0.14879641	-0.021289622	0.02012482	-0.24235794	0.10255889
IAO:0000112	-0.16646531	0.0060454654	-0.073544964	0.16005465	-0.13755654	0.13397327	0.0042805886	-0.049205564	0.1945496	0.010267525	-0.11304768	0.08113597	-0.029654944	0.10627626	0.10156448	0.22780475	-0.16477965	0.121067025	0.17881303	-0.22201192	0.09879923	0.11647819	0.08850442	0.10793167	0.1775515	-0.036519296	-0.19461574	0.19898546	0.020226164	0.10801095	0.14926264	-0.16263843	-0.14936486	-0.19616011	0.23968056	0.17768836	-0.14951101	0.14252038	0.23267075	0.095569596	-0.028039018	-0.13928583	0.06824619	-0.09197185	0.15458982	0.24279615	-0.08687641	-0.13523272	-0.13837636	-0.23508985	-0.17918034	-0.20719738	-0.18901321	0.24165249	-0.17210944	0.049466085	-0.23139492	-0.07157634	0.2154468	-0.17591116	-0.15455915	0.22361493	-0.05162046	0.23475602	-0.009218552	-0.13997242	0.19943179	-0.12591924	0.16781798	0.22533174	0.07279624	0.070527494	0.041348085	0.07962478	-0.11708101	0.23840313	0.13357976	-0.005523608	-0.23692429	-0.17049444	0.14560607	-0.22631535	0.063181475	-0.07013029	0.10496175	0.07428628	-0.07148762	0.11663439	-0.12927832	0.072069176	-0.21859881	0.007826173	0.1370702	0.17272428	0.22221383	0.18212959	-0.16193736	-0.10340033	-0.07729739	0.22223285
IAO:0000111	-0.18621215	-0.11917738	0.08615121	0.12211472	0.12127475	0.24431121	0.12212739	0.08618392	0.23175454	0.15113121	0.08110157	-0.002247306	-0.053158693	-0.1191869	0.045965247	-0.020380197	0.17544304	0.002609172	0.16936393	0.14291641	-0.1661263	0.2135487	0.23546036	-0.07068246	-0.0461833	0.2209439	-0.23523459	0.24316831	0.121771194	0.14347361	0.1841812	0.0883824	0.21793368	0.14747295	0.027274866	-0.020094736	-0.12980075	-0.08127207	-0.19265904	-0.13296267	-0.07815167	-0.01023826	0.0971361	0.22992313	0.066853985	0.04853102	0.19999892	-0.23404463	0.0714708	0.016282849	0.068480656	0.09663831	0.16101006	-0.08189896	-0.08057065	0.12865166	-0.048724774	0.117617644	-0.0017380072	-0.08071078	-0.18091378	-0.13865949	-0.11566188	-0.1449136	-0.116276845	-0.06597727	-0.20117418	0.08732396	-0.18630311	-0.124106005	0.19711521	0.15774515	-0.16774099	-0.22828205	0.16078827	0.019097868	-0.09952985	0.11561924	-0.087795466	-0.025567409	-0.14109868	-0.19007358	-0.24202886	-0.11824324	0.17100766	-0.08942734	0.16354564	-0.18063521	0.05661444	-0.23810358	-0.034263812	0.19446293	-0.10345757	0.21375115	-0.111385025	-0.043809943	0.2152349	0.1985358	-0.23331931	-0.17912729
IAO:0000232	0.24168837	0.09922172	0.03262096	-0.18716773	0.007825354	-0.09465024	0.18419038	0.18604714	-0.16564357	0.13934356	-0.22478056	-0.18334205	0.17349982	0.08562982	-0.06083352	0.23354156	-0.13489147	0.22691116	0.1846874	-0.033557136	0.076860175	-0.048716478	-0.11318344	0.15591174	-0.2169729	-0.16420749	0.22092779	0.04903214	-0.16109633	-0.23939309	0.17324707	0.08720112	0.11121148	-0.118218824	-0.022873187	-0.19945364	0.063681655	-0.10318945	-0.13742429	0.1539867	0.028165424	-0.054082256	-0.0622311	0.12486986	0.22942594	0.065463945	-0.05976013	0.1817833	0.23406243	0.11885067	-0.22801796	0.15040642	-0.21974078	0.24009463	-0.07847417	0.1921194	0.1821603	-0.06841646	0.028861409	0.19085197	-0.01793055	0.20619836	0.16092354	0.02227919	-0.043979745	-0.074575484	0.18445984	-0.1477111	-0.03355585	-0.067274205	0.10912528	0.06516902	-0.087692365	0.07389264	-0.13433152	0.11323694	-0.19053568	0.23340464	0.058108866	0.18045524	0.105508074	-0.02045228	-0.031485535	0.102639094	0.058393978	0.07790856	0.15633401	-0.03965091	-0.022158686	0.07677466	-0.22950058	-0.046650074	0.17454997	-0.24125056	-0.05489401	0.02019579	0.033064485	0.012573828	-0.01380978	-0.03294766
BFO:0000008	-0.0015823889	0.13095759	0.058706325	0.08090355	0.14766796	0.16080016	0.10317377	-0.081451096	0.020611372	-0.08858741	0.17742325	-0.14161335	-0.13486105	0.15515594	0.11583667	0.032636017	0.085766405	-0.10516688	-0.044144753	0.12760626	-0.099668995	0.04473378	0.104208946	0.024818439	-0.1259286	0.1579712	-0.05188697	-0.085377045	0.0777125	0.06888789	0.14408596	0.09363518	-0.0939628	-0.023050774	0.13356711	0.06502103	-0.067319684	0.072411194	0.034872565	-0.021227295	0.06939789	-0.05253792	0.07514938	-0.10663729	-0.12579802	-0.108210005	0.05894059	-0.041261937	0.07915705	0.08307014	-0.03439633	-0.06548928	-0.04125862	-0.0042963075	0.113946274	0.0919109	-0.146864	0.16084065	-0.07498128	0.14394134	0.148782	-0.112158015	0.071388714	-0.05926234	-0.08076544	-0.15524216	-0.09198357	0.14666508	-0.16190176	0.097535335	0.11238644	-0.14054376	0.018689787	-0.13911365	-0.072008505	-0.08101921	0.13946572	0.0812128	0.051092837	0.06508648	0.11267998	-0.15051502	0.012044871	0.0779339	0.050907772	-0.008570549	-0.17298868	0.09105124	-0.0951777	-0.07869788	0.1397826	-0.15527445	-0.03668031	0.05690755	-0.1337422	0.06835741	-0.07836428	-0.08890928	0.06201182	0.041138694
BFO:0000009	0.12846647	0.13293704	0.002300222	-0.11127028	0.042997986	-0.120075	-0.09620438	0.061091755	0.07089653	-0.1527765	-0.13942684	-0.13036944	0.06095044	-0.09904397	-0.103663445	-0.13894661	-0.15799506	-0.095800996	-0.11914999	-0.029708799	0.020923328	-0.12548557	-0.13706028	0.121855125	-0.04314727	0.050710782	0.11389709	-0.13241772	-0.00095636304	-0.1283833	0.0063488875	0.1687117	-0.092352904	0.07597855	-0.107679375	-0.16994362	0.12457159	0.05900887	-0.070530415	0.1483362	-0.1005588	0.0026897474	-0.19218303	0.059187423	-0.08354711	0.044263106	0.073623076	-0.13639137	-0.07386259	-0.1128763	0.1052494	0.19453186	-0.14537458	0.09138339	0.07993547	0.08938845	-0.044267766	0.053135317	0.06560135	-0.06009896	0.02963294	0.12828086	0.05131159	0.1744988	-0.101937175	-0.03127988	0.081842795	-0.022747517	-0.06856685	-0.055995345	0.14765933	-0.09455751	0.007328681	0.061785296	-0.17116109	-0.07643705	0.028024502	0.047668416	-0.1380672	0.064104594	0.04556499	0.13086328	-0.04007459	-0.06614415	-0.055407964	-0.12829828	-0.103610694	-0.092132345	-0.08142188	0.06591077	-0.16440775	0.07734973	0.056724317	-0.13980964	0.041160703	-0.05604968	-0.0054075345	0.043482013	0.10010775	0.09271244
BFO:0000004	-0.011191608	-0.11592682	-0.025144977	-0.048177257	-0.047422584	-0.06095289	-0.055387147	-0.0788747	0.1349668	-0.14829949	-0.0017153926	-0.1333501	-0.015784772	-0.08947948	0.08476982	0.09020777	-0.18641585	-0.08950401	-0.10381057	-0.11208626	0.17400794	-0.09056879	0.13109948	-0.011663629	0.06257109	0.11959996	0.11794817	-0.017765012	0.011514984	0.13324116	0.06626343	0.025453156	0.043703366	0.14093049	0.07063036	0.17170276	0.011674886	-0.09741688	0.00047693364	0.16694851	-0.17094062	0.026995817	-0.1543373	0.08737416	-0.034051023	-0.12870637	-0.0036281173	-0.19256411	-0.17989215	-0.107471466	-0.023239162	0.014780198	0.10819179	-0.10595121	-0.14859797	-0.017046561	-0.090095334	-0.05158838	0.012889919	-0.028289413	-0.14929366	-0.09437009	-0.09699845	-0.021349227	0.1941514	0.13078684	-0.1660313	0.14330345	-0.032438375	-0.025268836	0.09862663	0.060235582	0.11408363	0.16682354	0.10513748	0.090745635	-0.017968828	-0.009613284	0.07808387	-0.08467958	-0.018813813	0.05223562	-0.1610707	-0.17212225	0.036246415	-0.00027009827	-0.05086619	0.11220641	0.00028567953	0.06880294	0.0939612	0.045522485	0.013315534	-0.098799065	-0.034194525	-0.105713636	0.035660736	0.10831565	-0.1547792	-0.12186587
IAO:0000118	-0.080494836	-0.22532606	0.13456318	-0.017329078	-0.23185758	0.15641935	-0.10625915	-0.06575571	0.23524281	0.057842154	0.23972869	-0.15257598	0.00066420913	0.24365261	0.21362433	-0.14694765	-0.19145426	-0.19599748	-0.047548927	0.11496484	0.00066578627	0.0428341	0.23116365	0.16693385	-0.12368257	-0.2107466	-0.19020827	-0.05575017	-0.0793135	0.014300795	0.14691399	-0.20094852	-0.16422741	0.13845463	-0.17029871	0.027200798	-0.23535855	0.18264893	0.1958681	-0.19498804	-0.062494308	-0.16215727	-0.13266309	0.23528786	0.1060675	0.15615708	-0.14753328	-0.15763229	0.17177133	-0.09474265	-0.0001712656	-0.0153090535	-0.14736483	0.044201188	-0.018480856	0.22913861	0.081090115	0.089096956	0.23317525	0.015778225	-0.12863116	-0.14107683	-0.092072025	-0.19949248	0.19334725	-0.20235784	0.21234949	0.011220117	0.13957609	-0.08662377	-0.0095362	0.046896927	-0.24385786	-0.1178079	-0.1561669	0.07360852	-0.1065657	-0.10714276	0.12656114	-0.19828457	0.011992915	0.030616298	-0.12952925	-0.19654784	-0.07198547	-0.013372561	0.06542253	-0.12148088	0.17837593	-0.2034493	-0.05772393	0.028125996	-0.02507762	-0.23548886	-0.13311449	0.038709767	0.20720342	-0.19840887	0.23886032	-0.21002129
BFO:0000006	0.08155562	-0.007010177	-0.022430481	0.018166466	0.0872774	0.05820322	-0.07334298	-0.06801264	-0.05546908	0.008824129	-0.04873038	-0.0034359235	0.08540752	0.05967361	-0.013530264	-0.022849098	-0.01045036	0.1654774	-0.17168741	-0.18128955	0.0068798685	0.0974825	-0.13150811	-0.050569106	0.14187218	0.035327453	-0.095760174	0.12840854	-0.08427931	-0.08240664	-0.016732953	0.128945	0.015303081	0.08106518	-0.1562075	-0.15398887	-0.08949586	0.13276437	-0.036175042	-0.09191892	0.082372226	-0.14490904	-0.16178612	-0.09837062	0.04417778	0.17330982	0.07351128	-0.039182	-0.047706164	-0.11079452	-0.095736265	0.11809642	-0.011965378	-0.050949894	-0.12718071	-0.053444855	-0.0122949835	-0.014886321	-0.15581955	0.06835947	-0.07569726	0.070437625	-0.06458397	0.0020719506	0.1803761	-0.15015732	-0.13493846	-0.07985966	-0.067180514	0.12323748	0.18328857	-0.09528887	-0.15956126	0.0482992	-0.05583579	-0.17703746	0.006612547	0.083162874	0.027464971	0.11095905	0.17711921	0.14783028	0.1592508	-0.17772196	0.10394565	-0.18060684	-0.027293194	0.13291828	0.10573949	0.028686574	-0.09824786	0.028321259	-0.06552541	-0.14513777	-0.020564647	0.031971257	0.00950591	0.06333614	0.09881975	-0.03638139
IAO:0000119	0.2440348	-0.15276273	0.10137276	-0.18530932	0.20370443	-0.15855263	-0.055613715	-0.062040966	-0.20773034	-0.057370592	0.24191236	0.2089462	-0.15103121	-0.1788066	0.24338034	0.11098321	-0.03148279	-0.14264971	0.19331874	-0.008263332	0.004281874	-0.20739803	-0.091139995	0.22773543	-0.12650296	0.1383072	0.006860613	0.07008321	-0.23181295	0.04657928	-0.06218589	-0.19394878	-0.111856125	0.1676376	0.21397674	0.033189543	0.17863698	0.022214236	0.12361387	-0.17417157	-0.053910874	-0.19355665	-0.19486901	0.17213865	-0.09467343	-0.03376602	-0.094680905	0.119354546	-0.09437167	0.011463756	0.034526728	-0.06440002	0.097200066	0.0083850045	-0.20169225	-0.10928545	-0.16881391	-0.10941442	-0.23876593	-0.21871419	0.0695357	0.24020667	-0.23307434	-0.17772685	0.11029802	0.22798339	0.18772188	-0.12272344	-0.053784233	-0.0910102	-0.16681668	0.23626745	-0.24031988	-0.17070548	-0.11146949	-0.2402652	0.13246092	-0.027452383	0.06737351	-0.13649985	0.030295786	0.14914092	0.014680477	-0.09998173	-0.051530324	0.08787824	-0.045552038	0.10690309	0.23725438	0.23359315	-0.1693943	0.15151253	0.053998433	0.19608481	0.16917683	-0.062370647	0.06339076	-0.10461098	-0.16332039	0.22883222
IAO:0010000	-0.23379514	-0.19977286	0.24070725	0.15285718	-0.065742865	0.15264644	0.084531724	-0.08967933	-0.12571475	-0.22380576	-0.14556918	0.010154672	-0.19788152	-0.1347939	-0.09392844	-0.12798786	0.21643884	0.20253682	-0.029609323	0.04475079	-0.14760676	-0.16454723	-0.14441131	-0.1886642	-0.09726689	0.1794683	-0.027146593	-0.060141157	0.18322167	-0.16709939	-0.10330435	-0.024877556	0.07012544	0.19129907	0.0815226	-0.043847326	0.16658343	0.20957613	0.008165842	0.12444707	0.19458927	0.16159306	-0.0013999152	0.23380184	-0.077688634	-0.004032452	-0.24216571	-0.154764	0.1439137	0.19905345	-0.040141925	-0.048519336	-0.20319419	0.01220688	-0.046520226	0.13377614	0.23310629	0.24291198	-0.042777322	0.14578961	0.19197045	0.124928035	0.24260965	0.20633742	0.028384704	-0.13415927	-0.14766745	0.1712402	0.15576309	0.14294937	-0.04106496	0.2044652	0.086356126	0.17853242	-0.16889107	-0.16363814	-0.22063735	-0.1858525	-0.08288613	-0.02752896	-0.060716696	0.2421052	-0.047109842	0.120372616	0.14316532	0.1338283	0.021504873	0.038929045	-0.14712743	-0.16633354	-0.09804489	-0.20935345	0.13313517	-0.042479303	-0.20643277	-0.17816506	0.17872559	0.2335706	-0.03299462	-0.23178193
IAO:0000600	0.023458365	-0.050740123	-0.031726602	0.028434237	-0.026568893	-0.06756014	0.15234964	-0.039195467	-0.028739968	-0.1676633	-0.18962759	0.016088452	-0.22236732	0.20430966	-0.15650469	-0.11246449	-0.03636643	0.10368725	-0.21772099	0.14880416	-0.12479246	0.2202274	0.19881794	-0.016056268	-0.19486591	0.11365745	-0.03627215	0.09277485	0.061026745	0.05121245	-0.11142516	-0.17109586	-0.083089165	-0.18898407	0.23737237	0.15707245	-0.2389574	0.23767269	0.1889483	0.1322914	0.13406137	-0.23988488	-0.051202107	0.083784275	0.02977101	-0.042989887	0.16765039	0.23370576	0.03277289	-0.14796296	-0.21659136	-0.030687561	-0.11629939	-0.06029256	-0.20813048	0.01963205	-0.15370843	-0.13722381	-0.11716314	0.13819072	0.0745329	-0.11428597	-0.15146503	-0.014629541	-0.041806273	0.1310742	-0.033713333	-0.010725362	-0.03161644	-0.019429417	0.018372675	0.027443793	-0.119247936	-0.23204696	0.1811556	0.009446537	0.18353276	0.21635333	0.054366022	-0.102555275	-0.092159525	-0.07510926	-0.2227335	0.15927479	-0.12421517	0.034696065	0.12025825	0.06806704	-0.23678394	-0.18172805	0.18524384	0.22094257	-0.15978625	0.045316402	0.033385344	-0.15591432	-0.21204428	0.102071784	-0.07008566	0.11012238
BFO:0000001	-0.08093755	0.14649473	0.018018045	0.12237106	0.015050256	0.1079171	-0.05254813	-0.05282382	0.0018417293	0.09319359	0.10939458	0.14527516	-0.0746517	0.09954038	-0.074162595	-0.00567587	-0.06963164	0.12442578	0.17601322	0.077400185	0.1609932	0.09115473	0.11962196	-0.06742341	-0.039808933	0.11383499	-0.11263393	-0.040923186	-0.09902653	0.104587324	0.08309965	-0.09716468	-0.14982687	-0.08255042	-0.11101337	-0.11900185	0.14043032	-0.121227555	0.07589315	0.14172733	0.14959449	-0.0040098657	-0.09983124	-0.08667945	-0.034147438	0.16226023	0.10785207	-0.018096218	0.0013526458	0.119994015	0.120625995	-0.02809084	-0.043133438	-0.11210133	0.04958114	0.025453554	-0.14536326	0.08781451	-0.030062353	0.15653747	0.103729144	0.1370807	0.04028935	0.1012151	0.016590044	-0.019627005	-0.119107306	-0.06235122	-0.008792178	-0.0029465994	0.12076634	0.15552154	0.13034812	-0.12480835	0.1204896	0.050906602	0.053979058	-0.11371484	-0.17992689	0.14122811	-0.13436133	-0.0487666	-0.033949673	0.12658894	-0.15520623	0.106052436	-0.0031375533	0.0025761682	0.06668821	-0.14283921	0.06929025	0.09007413	-0.014979153	0.10258969	-0.047281154	-0.017364148	0.124691315	0.13714634	-0.16586885	-0.022690453
IAO:0000601	-0.22306955	-0.064850196	0.1728744	-0.11861195	0.052411832	-0.22723489	-0.14969385	-0.22924566	0.04675481	-0.14115143	0.084161274	0.059799384	-0.14833179	0.16268457	0.11914624	0.085975625	0.00083962205	-0.102545224	-0.04411783	-0.09085448	0.1821467	0.12476383	0.14906843	0.084063545	-0.09515995	0.119251445	0.19828077	0.101524055	0.07298777	0.007902868	-0.12201442	-0.06798427	-0.08929808	0.22827843	0.21810623	0.06976135	-0.23489673	-0.09437471	0.07888429	0.052188873	-0.1340359	0.2088635	0.22824426	0.014772944	-0.106130704	-0.10511269	0.12560761	0.11467137	0.030535862	0.09890671	0.018388914	0.15485027	-0.1395035	-0.24021788	-0.05844637	0.17004392	-0.05877343	0.19766149	-0.15809129	-0.16161177	0.226265	-0.12280941	-0.04339334	-0.029346466	0.17373669	-0.15151748	0.23914485	0.1782118	-0.07145321	0.17978677	0.1878945	-0.21098158	0.13484854	0.20084104	0.18899165	0.019650858	0.18865216	0.03064194	-0.017831892	0.09134298	-0.20058854	0.18787435	0.09043694	-0.21945958	-0.09381529	-0.04443472	-0.001839236	0.1301003	-0.081284985	0.07977589	-0.08698774	0.02941218	-0.109900996	-0.17731802	0.033314724	-0.007777398	0.12322128	-0.09802754	-0.06693477	-0.0016835665
BFO:0000002	-0.055956047	0.06520312	-0.004009567	-0.020729339	0.19013873	-0.116485655	-0.11839001	0.029055802	0.0043166312	-0.04128141	-0.11788722	-0.07263515	-0.102175646	0.021218227	-0.097403005	0.078259826	-0.16070266	-0.17487542	0.09753565	0.04677797	0.15212868	-0.098317534	0.038383916	-0.06224829	-0.0034987186	0.093104675	0.12029554	0.0074895765	-0.11703746	-0.024085715	-0.06477269	0.061159372	-0.17885645	-0.073048376	0.056922078	0.025096927	0.08081674	0.11171102	-0.15544614	0.0204298	-0.09674769	0.062245682	-0.015541103	0.066947445	-0.10610004	-0.09153939	0.03695957	0.14578176	0.095385425	-0.16634625	0.16902971	-0.09884264	0.1339887	-0.11537311	-0.111384846	0.08201599	-0.14738017	-0.13811578	-0.0349225	-0.09895039	0.15421239	-0.15615752	0.10613881	0.13674894	0.114558734	-0.049937755	0.083159365	0.062360883	0.095572196	-0.15291966	0.082638055	0.12819442	0.18228883	0.07754409	0.028495273	0.07347051	0.15429412	-0.007053184	0.05020313	0.06348878	-0.06460702	0.07506497	0.021902548	0.10892732	0.0851587	0.009638756	-0.1398073	-0.09757836	-0.087762594	-0.07293205	-0.02201781	-0.03554085	0.07614312	0.020272586	-0.016888212	-0.15168953	-0.18286283	0.14508209	0.1114314	0.0157909
BFO:0000003	0.05117055	0.12270937	0.044141818	0.006941113	-0.19041452	-0.10062733	-0.10454534	0.15537588	-0.01190497	-0.07894997	0.07540022	0.11394501	0.029589452	-0.05249418	0.11417623	0.14146297	0.12441199	-0.03254013	0.15502155	-0.022741428	-0.06918809	-0.006597362	-0.0786553	0.16073355	0.04626381	-0.006242289	-0.16542895	-0.09606889	-0.05004717	0.16523926	0.080162406	-0.12210048	-0.014041269	0.137256	-0.054596145	-0.062756054	0.03922036	0.15080991	-0.11721508	-0.09653633	0.12559913	-0.051318593	0.0791153	-0.17923313	0.03565213	0.17543797	-0.065686494	0.121189855	-0.025006192	0.03897249	-0.13409248	0.06642767	0.1430361	0.03564003	-0.103428684	-0.14532362	0.0010402828	0.14325927	0.0047036163	-0.11186921	-0.012534584	-0.13631797	-0.019883163	-0.020670673	0.12485636	0.04570071	0.030842537	0.018490143	0.047792625	-0.11690773	0.14309311	-0.086656965	0.043741364	-0.074820325	0.10942432	0.18276598	-0.109191746	0.12610875	-0.10446032	-0.08231364	-0.11612324	0.05683745	0.0037405158	0.1282176	0.092645876	-0.066960394	0.13603155	0.16369034	-0.023006713	-0.037896596	-0.064288214	0.012630374	0.15240937	-0.054058116	0.076844655	0.15286443	0.11641905	-0.13976368	-0.024710748	-0.09603157
BFO:0000040	0.077059165	0.082757026	0.1388285	0.09994691	-0.14302683	-0.09851102	-0.078344576	-0.13887087	-0.103903696	-0.16049917	-0.096772775	-0.009208272	-0.04768351	0.1191195	0.08554589	-0.17817245	-0.038954243	0.005657293	0.07556306	-0.002176323	0.121774584	-0.10005312	0.114660725	-0.15926443	0.08118721	-0.1522367	-0.013791912	-0.002384595	-0.13960236	-0.073965386	0.10550389	-0.01226916	0.0024776005	0.10990334	0.15555279	-0.05814538	0.12321173	0.03869987	-0.051650688	-0.12628864	-0.032846875	0.13207074	0.07280548	0.16468947	0.0355121	0.14515138	-0.037388634	-0.17343338	0.08860126	0.16003194	0.029946206	-0.03674901	-0.029042384	0.15894528	0.030028839	0.04132221	-0.04243275	0.09921962	-0.05418428	0.045333337	0.06114361	-0.16193815	-0.0035725008	-0.1669271	0.16368426	-0.07655255	0.0868427	0.12905864	-0.0057787797	0.038941614	0.00822663	0.15335761	-0.13006395	0.121473186	0.1016553	-0.022091003	0.17758043	-0.0026195638	-0.044721976	-0.07807174	-0.08029714	-0.035429984	-0.01376443	0.08739506	0.12389657	0.07517346	0.08084086	-0.046644356	-0.0350761	-0.036000643	0.012051478	-0.14618711	-0.15547167	0.11316612	0.056213293	0.11517761	-0.13725543	0.14274181	-0.123846054	-0.06360204
BFO:0000038	0.13066475	-0.11296495	-0.01826759	0.16116486	0.10876574	-0.051391143	-0.010570348	-0.13938576	-0.14706312	-0.028673153	0.036718942	-0.11183199	0.099604666	0.07778652	0.11093033	-0.049311996	0.09374585	0.010421373	-0.05261646	-0.05254994	0.08915362	-0.14567104	0.15248494	0.075661235	-0.022941336	0.14897726	0.02656657	0.06355392	0.14271498	-0.106589615	0.016811531	0.121639185	-0.00943042	-0.03472965	-0.000770015	0.13183627	-0.119695	-0.10544249	0.13803421	-0.0872892	0.11616359	-0.1456876	-0.019959737	0.0685945	0.058919564	0.11390417	0.15632048	0.06480731	-0.055122916	0.16354592	0.14782527	-0.021743743	0.1313685	-0.036262266	0.0059227925	0.006796137	0.08571953	0.15350085	-0.14017257	0.083457604	0.03126467	-0.15782617	0.15280472	0.02667162	-0.13932262	0.10511556	-0.1336464	0.19108255	-0.063386306	0.098134235	-0.028042903	0.07537515	-0.065405495	-0.077094965	-0.09897068	-0.057337735	-0.006229865	0.069291085	0.12505637	0.09732265	0.012360766	-0.1332289	-0.11276891	0.12818344	0.0033585904	-0.090977006	-0.13371524	-0.13871652	0.06962995	-0.049917143	0.076428466	-0.00059415854	-0.16522717	0.116106704	-0.07851863	0.13604574	0.010303196	0.033627223	-0.113598034	-0.1364231
IAO:0000602	0.20575973	0.03854142	0.080389224	0.24097164	-0.12439432	0.06108002	0.06678336	-0.07582639	0.072250135	-0.077327356	-0.060340226	0.12491969	0.05512299	-0.17161128	-0.09764488	-0.049655285	-0.12896219	-0.03522826	-0.22617528	0.20655987	-0.026409427	-0.10573572	0.21257654	0.18435803	0.12860027	0.09904865	0.0041170334	0.06421865	-0.24426787	-0.00677755	0.12169723	-0.1723592	-0.23794892	0.22717479	0.030863384	-0.0486774	-0.17027499	-0.21358708	-0.04770121	0.10298431	-0.2369649	-0.15409903	-0.18703361	0.019209903	0.17878342	-0.19419459	0.15683524	0.16364399	0.014171879	0.17016529	0.010713271	-0.13272056	0.026591554	-0.19579199	0.004591168	0.05704739	0.23290208	-0.18037154	0.23919268	0.0853582	-0.16028456	0.051541664	-0.06169966	-0.12193229	-0.11566655	0.10731852	0.09665812	0.073826164	-0.013313798	-0.11403036	-0.085384086	0.09972968	0.007703389	0.20581594	0.0715788	-0.24065503	-0.17509128	-0.03053154	-0.14484468	-0.0556157	0.017874183	-0.18231592	-0.05102868	0.22091231	-0.08945894	-0.16501388	0.042982467	0.24177971	-0.21765439	0.062526196	0.20053765	0.053444915	0.16202818	0.038557485	0.17269012	-0.016897816	0.2416213	0.09046604	-0.06596179	-0.059211053
BFO:0000034	0.06629859	0.029398758	-0.02174096	0.058523152	-0.032808505	-0.12306726	-0.17549425	0.08702564	0.06135405	0.0112147145	-0.09656101	0.1029636	-0.03004146	-0.10181367	-0.09695688	-0.108479954	0.05964134	0.051051714	-0.03904625	0.13262384	0.11732382	0.009770036	-0.06705169	0.04147801	-0.18973754	-0.020304514	-0.09562353	-0.082699664	0.00094527734	0.14168909	-0.08043845	-0.12664412	-0.11004913	0.14093181	0.15817943	-0.14114006	0.19231531	0.08327772	-0.18371059	-0.098695435	0.07659908	0.07411503	-0.027805893	0.12367376	0.03296329	0.05720263	-0.064841576	0.09421356	-0.029243756	0.14267126	0.08498325	-0.09373169	0.03656094	0.0017342842	-0.035373338	0.074007735	-0.15421738	-0.12986915	-0.07289799	-0.13562852	-0.2023826	-0.12197555	-0.11020707	0.1455749	-0.107107416	-0.015044959	0.13764988	0.08769761	-0.096361645	-0.026863147	-0.08632398	0.083572	-0.07084335	0.021226957	-0.13098514	0.047190696	-0.114010364	0.049659617	-0.1498186	0.115917854	-0.18420944	-0.060138054	-0.088914216	0.08208024	0.12562178	-0.022228174	0.05241396	-0.11110044	-0.08504424	-0.05493671	0.074580826	0.08409519	-0.081238896	-0.04047804	0.07520843	0.15519202	-0.18563646	-0.111831516	0.00292965	0.035652783
BFO:0000035	0.115908995	0.11409142	-0.09331336	0.15464185	-0.14526187	-0.13397913	0.073140614	-0.057416912	0.036187876	0.112787366	0.08389497	0.048504673	-0.07309849	0.09494181	0.04176684	0.07720827	0.07203245	0.09021213	0.14139909	-0.10516671	-0.15929462	0.15955123	0.06653484	0.014830528	0.18160616	-0.0034988262	-0.14869648	-0.09651544	0.009141777	-0.09404433	0.08916732	-0.041523665	0.12634161	-0.07534567	0.022826286	-0.039102264	-0.1511134	-0.07173203	0.08563545	0.07913317	-0.09870858	0.14366993	0.16098236	-0.17679352	0.05208225	-0.10097115	0.10712967	0.053482912	-0.09112321	-0.0869723	-0.010653339	0.090199105	-0.06160298	0.096253395	-0.10580515	-0.19455943	-0.1596578	0.06431394	-0.031042624	-0.040874016	0.1160074	-0.060153134	0.10622101	-0.062718004	0.16801293	-0.04037767	-0.08005785	-0.036120657	-0.081958465	-0.11294213	0.0999064	0.09326917	-0.059444256	-0.1068888	-0.11303686	-0.09961518	-0.15112141	0.066625714	-0.10849521	-0.18641034	0.081450626	0.068691604	-0.028886622	0.07931734	0.049987376	0.07555768	-0.039391596	-0.000766315	0.05630796	0.13723889	0.12481951	-0.07339771	-0.006804468	-0.071854375	-0.011380352	0.095134765	0.17581385	-0.082753785	-0.06512937	-0.13869609
IAO:0000412	0.09357983	-0.0020596266	0.13712546	0.20694773	0.007678739	0.14512376	-0.11518401	0.08641699	0.0992514	-0.20987356	-0.17006242	0.22788577	-0.093849346	0.24103975	-0.027809575	0.18180294	0.07343346	-0.06367494	0.12495859	-0.14303079	-0.09626862	-0.11584669	-0.21040294	-0.20937765	0.061046787	0.023901131	0.033946164	-0.20104375	-0.14644085	0.056861527	0.06529904	0.1782806	0.228604	0.039170112	-0.11982261	-0.080631115	-0.103632405	0.010477694	0.17971423	0.22052555	-0.011368952	-0.038307127	0.024459498	-0.1958348	-0.21404977	-0.20213962	0.09489429	-0.11470811	0.20094538	-0.092685655	-0.20832272	-0.012285679	0.03676539	0.05489536	-0.10620143	0.20439498	-0.062664285	0.086077146	0.00108513	-0.07990265	-0.19417448	-0.24289727	0.08418148	-0.13045013	-0.111487076	0.21648908	-0.028578226	-0.011182966	-0.23639245	0.115578875	0.1713128	0.010287618	-0.1760337	-0.18165813	-0.05488695	-0.094025984	0.19637208	-0.18153617	-0.09381728	0.23487501	0.2388592	0.0048997616	-0.16386911	0.18849894	0.019603778	0.13762565	0.0986584	-0.008115548	0.0048598656	-0.22378859	-0.09670479	0.1061966	0.013353402	0.15418665	-0.09867346	0.1367043	0.07333953	-0.12934789	0.030971562	0.0067724683
BFO:0000030	0.023834873	-0.036354702	0.1285694	0.14032847	0.042852502	-0.16287968	-0.056856785	-0.039078638	-0.17743947	0.10430303	-0.18364406	0.08871643	0.056709122	0.018309541	-0.1324662	-0.16537665	0.113128446	0.04253917	-0.085002616	0.032443143	0.020360919	-0.07132918	-0.07939938	-0.06284072	0.033969916	0.089889556	-0.061046872	-0.043683488	-0.02371509	-0.14373419	0.11989439	-0.0077614295	-0.15512337	-0.02760231	0.05061134	0.079705834	0.15749739	-0.1479647	-0.10483981	-0.101574644	-0.017572617	0.16612856	0.08593119	0.16061816	-0.16052064	-0.114870094	-0.11406621	-0.055372886	0.20530388	-0.0135549605	-0.010302051	-0.049927257	0.070493266	-0.040295105	-0.046107672	0.1772701	-0.08508067	0.11041754	0.04522253	0.003250106	-0.13008624	-0.007324333	0.04192142	-0.13381298	0.08998991	-0.024673535	-0.07791634	-0.06133307	-0.11178487	0.020037245	0.057069294	0.13810942	0.030660296	0.0032284698	-0.09689573	0.006114432	0.00260149	-0.062345635	0.16629401	-0.13912095	0.13114148	0.15099935	-0.06558581	0.021104263	0.015105078	-0.07522836	0.17069826	0.13063046	0.093379065	-0.14123896	-0.15034606	0.09871246	0.0069816126	0.0937515	-0.06285854	0.11239393	-0.10425821	-0.088915884	-0.10690008	-0.13261178
BFO:0000031	-0.021418028	0.017183121	0.050051253	0.08196597	0.22722791	-0.065801226	-0.14743388	0.14680676	-0.018364726	0.08803428	0.1345024	0.07457114	-0.14057729	-0.10747725	-0.025661835	0.03962824	0.0047767945	-0.14234878	0.10791279	-0.09373132	-0.0020417667	-0.12758121	0.15270366	-0.0716093	0.059088465	-0.13897857	-0.05227508	0.1705994	0.09087306	0.09780767	0.05372208	0.12167918	0.029532325	-0.07874036	-0.13334244	0.13383262	-0.14683408	0.11846166	-0.058658917	0.07347705	0.00086918566	0.14861582	-0.13891461	0.0035297934	0.01895637	0.0030691836	-0.0007642649	-0.12736045	-0.08074639	-0.05605513	0.008754929	-0.14616658	-0.05669291	-0.08119733	0.13354696	-0.096840486	0.051788144	0.11399247	0.14955382	0.11120912	-0.12076093	0.06742871	-0.04009044	-0.088099666	0.0016423318	-0.022038855	-0.08966838	0.19106732	0.0711864	0.05255844	0.099197514	0.05717067	-0.017385826	0.0935286	0.1587152	0.18525869	0.07475897	0.02302919	0.1833073	0.027219221	-0.038860276	0.13778888	-0.007118152	-0.12990318	-0.05192221	0.020308437	0.06200611	-0.13932168	0.14615655	-0.0062826355	-0.06796054	-0.007776272	0.08501839	-0.094157174	0.12078551	0.021885436	-0.1699026	-0.1165536	-0.06258362	0.12360354
BFO:0000026	0.11001286	-0.088683896	0.074302554	-0.07203172	-0.02441366	-0.0109365815	0.03409066	-0.06883641	0.13579844	0.087058045	-0.17479372	-0.080173954	0.10345679	0.17801769	0.113877095	-0.1705666	0.087929636	-0.015890127	-0.21117961	0.07611646	-0.0397308	0.05480317	0.022738375	-0.1678191	-0.13680838	-0.1439288	0.07052486	0.062759034	-0.04726164	-0.13712494	0.026845288	0.03398217	-0.054487538	-0.030758848	0.059071746	-0.1257178	-0.026464768	-0.11967588	0.15652256	-0.08073969	-0.0657393	-0.033298314	0.034424227	0.0671582	0.12475065	0.084847316	0.1242137	0.062330946	0.047921937	0.11779673	0.004311885	0.13596278	-0.13323145	-0.11167526	0.055639703	-0.08925541	-0.09363553	0.038478736	0.14276078	-0.15398175	0.04763713	1.5659583e-06	-0.13911988	0.050824367	-0.081681274	-0.04012314	-0.007228109	-0.03650123	-0.15170617	-0.024594264	-0.009567456	-0.090341955	-0.00770596	0.1672527	0.1046209	-0.095687814	-0.07305203	-0.16663732	0.16561976	0.02704946	0.16135623	-0.14029035	-0.09465733	0.02875281	-0.062296513	-0.047304753	-0.11073139	-0.07701297	0.12072678	0.015118298	0.067927495	-0.0106173605	-0.14250553	-0.14450382	0.1461307	0.025758494	-0.12505867	0.14548267	0.008074284	0.15822725
BFO:0000147	0.07210747	-0.17593102	-0.03284549	-0.18481734	0.06426515	0.07769409	-0.13915388	-0.11374972	-0.09659616	-0.13291086	0.010999703	0.078961015	-0.20872356	0.079413824	-0.05615025	0.14734815	0.069707505	0.02474972	-0.15062219	0.09709682	-0.037268218	0.16920032	-0.16671693	0.101285	-0.019140694	-0.13610822	-0.03699039	0.041418687	0.023726473	-0.111012265	0.12838654	0.04036662	-0.004229384	-0.08086789	-0.06300352	-0.0025700713	-0.060704354	0.1004441	0.05089013	0.022562156	-0.11618426	-0.029741537	-0.15700161	-0.14848702	0.0750772	-0.048448574	-0.128674	-0.11916764	-0.1319178	-0.102363415	-0.07179862	-0.18873566	-0.14649355	-0.0033355558	-0.0031508815	-0.09545009	-0.0025292563	0.1046338	0.013089884	0.11620597	0.100779675	-0.034690082	0.08294367	-0.133542	0.10215102	0.085680574	0.05290471	-0.17288975	-0.0002051402	0.14623088	-0.13431077	0.0416929	-0.05409878	-0.14789952	0.027385892	0.1463534	0.04885701	-0.021737304	0.0438052	-0.10314225	-0.06808744	-0.044928342	0.07216782	0.008335543	0.09342794	-0.11613108	-0.02701841	0.13977091	0.077044845	-0.08845289	0.09678181	0.05145957	-0.0041769384	-0.19832827	0.06283105	0.03384335	0.19674213	-0.013144341	-0.11892756	0.023899898
BFO:0000027	-0.041304655	0.12474823	-0.06123887	-0.13703282	-0.014314138	-0.1532583	0.041439857	-0.033608116	-0.19946153	-0.12842914	-0.14596531	0.117916346	-0.11348613	0.014605353	-0.04711109	-0.0639341	0.10573497	-0.054494757	-0.118697666	-0.0020353133	-0.01202542	-0.16009912	0.13092272	0.07364431	-0.0008618526	-0.020324623	0.12778018	-0.028672	-0.11964952	0.07561165	-0.07727897	-0.0015163204	0.1766982	0.025107624	0.2001939	0.0752839	0.06120151	0.09817917	-0.15718788	-0.19822986	-0.03962242	-0.04190066	0.17125623	-0.10712663	-0.034845576	0.123826616	0.04237108	-0.17459619	-0.13671641	0.09894223	0.09130295	-0.14466089	-0.14709157	-0.033080757	-0.095551066	-0.09145385	0.13774025	0.006513961	-0.09295273	-0.04665001	0.15336588	-0.010606965	0.0671698	-0.059446473	0.0663822	-0.0049388083	-0.046458516	0.13276155	0.097134106	-0.03381471	0.07467605	-0.09336649	-0.13004573	0.0436403	0.09817096	-0.14156072	0.16520785	-0.0902128	-0.16281265	0.087321915	-0.082492456	-0.07073253	-0.024713764	0.118347764	0.004460175	0.1380185	0.060741767	0.13912669	-0.042780127	-0.12042272	-0.05450633	-0.05535381	-0.08509171	0.036896292	-0.0533873	-0.009820213	0.08281704	-0.11391814	0.053888474	0.053471863
BFO:0000148	-0.114712544	-0.062329322	-0.09323201	-0.13950132	0.062113587	0.17572892	-0.09613875	0.14134541	0.13932858	-0.117320925	0.19633336	-0.15309614	-0.092174955	0.08023791	-0.043706633	-0.06811662	0.043596677	-0.059202578	-0.04956474	-0.08041718	-0.086782455	0.10349027	-0.071729615	-0.06341851	-0.055056836	0.060187146	-0.066253126	0.118074544	-0.13697477	-0.028183093	0.08551997	-0.14128935	0.057842255	-0.11035951	0.11476724	0.062314704	-0.1580625	0.035766598	0.110090636	0.075891316	-0.08160642	0.056338653	0.016304905	-0.015969332	0.11191846	0.13391222	-0.078866065	0.110716246	0.023082316	0.10557894	-0.10661321	0.14997424	0.14332832	0.11730394	-0.06731917	-0.024673928	-0.12740153	-0.058727957	0.121605925	0.11705525	-0.10464993	-0.13783102	0.016951624	0.015549411	-0.0054159327	-0.14226454	0.14127868	-0.11290828	-0.037550535	0.10137576	0.0054325303	0.12071997	-0.14194757	-0.05671654	0.029244008	0.11112269	0.14525132	-0.024144659	-0.03286328	-0.030973038	0.03804108	-0.0953976	0.121536	0.049567696	0.13731636	0.123024076	-0.08684283	-0.06090601	-0.17785738	-0.16973218	0.074738726	-0.18051335	-0.05832587	0.11086959	-0.006050586	0.018244153	-0.18253258	-0.018348964	0.007743467	0.005824977
BFO:0000028	-0.040149115	-0.1623291	0.13439181	-0.027998662	-0.06955646	0.05400554	-0.032901622	-0.01594106	-0.11843191	-0.1615819	0.11294015	-0.08869407	-0.09279051	-0.044536255	-0.058384012	-0.17310421	0.04655211	-0.114342555	-0.0730626	0.1142456	0.14059104	-0.14402752	-0.106117144	0.044779677	0.077738784	-0.10044264	-0.10206425	-0.08221448	0.080354124	-0.11070695	-0.018785655	0.09381527	0.07628691	-0.13404864	0.07617846	-0.16882803	0.0006839018	0.1698289	0.0075354124	-0.07601595	0.1302296	0.02764212	-0.06649511	0.0043898933	0.034468353	0.165625	-0.05895573	-0.018764734	0.1297504	-0.026065404	-0.107429616	-0.027866313	0.027165694	-0.016002202	-0.009719138	0.028689459	0.0021265114	-0.09243885	0.13171357	-0.03403741	-0.17846642	-0.07853528	-0.057906263	-0.07104001	0.004846547	0.078229405	-0.18141985	-0.057230357	-0.10722854	-0.13512237	0.045775525	0.15120727	-0.08259596	0.11045302	0.111946955	-0.09018689	-0.10125391	0.11848733	-0.1492159	0.18485735	-0.071373925	0.15623105	0.06795454	0.09168952	0.048622854	-0.16983637	-0.017812151	0.113670446	0.15436207	-0.006259288	0.03352534	0.06032229	-0.17220806	-0.04994982	0.003220118	0.029986963	0.11321308	0.039152175	0.18714125	-0.15063629
BFO:0000029	0.021728965	0.04278379	-0.14896302	-0.058908083	0.10175263	0.17497417	0.013356625	-0.022335611	-0.06455871	0.09037358	-0.04670128	-0.16449331	0.04866107	0.1580404	-0.13873816	-0.1300177	0.13953525	0.061271623	-0.050944705	0.01055191	-0.02578905	-0.12090533	0.09570469	-0.09185636	0.0408683	0.09050636	-0.10030512	0.078304775	0.1537339	-0.14588249	-0.15198717	0.062986284	0.08266318	0.07959578	0.031917464	-0.10290692	-0.0083908755	-0.14636512	0.14379129	0.15947779	0.09986516	-0.10320555	0.042949215	0.045384213	-0.0009451662	0.13777927	0.0767361	-0.0043259775	0.08860017	0.078454345	-0.033525534	0.010038762	-0.089518026	-0.15656097	-0.03986898	-0.078111224	0.10527046	-0.14997098	0.027369143	-0.1908959	-0.012495747	-0.14260586	0.0847944	0.054383848	0.08948342	-0.05655103	-0.10457082	-0.069984	0.027544426	0.024683226	-0.050993495	-0.15548848	0.16614845	-0.10502082	0.12685283	0.115963094	0.04127405	0.07051066	0.11733425	-0.16336693	-0.010756323	0.13683309	0.0632106	0.069201656	-0.16361944	0.07178566	-0.05180504	0.12432541	0.11405884	0.06814671	0.021062523	0.07308941	0.13954213	-0.103431314	0.07341781	-0.032554377	0.13572304	-0.13708188	-0.08354532	-0.13188384
BFO:0000180	-0.1627855	-0.063461676	0.1781452	-0.015080368	0.010070908	0.074906096	0.13259439	0.22538331	0.07594823	0.1502972	-0.13845791	0.19044004	0.1693478	0.18099077	-0.14419162	-0.17191508	-0.23819828	-0.13036665	0.16812763	0.1641079	-0.022385968	0.095338285	0.1081933	-0.19245604	-0.23379035	0.20393884	0.1050895	-0.048048474	-0.008269348	-0.24182796	0.18435791	-0.21234553	0.08950631	0.0016349673	0.15639576	0.011141785	-0.042614937	-0.2389991	0.011280866	0.0044975327	-0.15764824	0.094539955	-0.22260627	0.15466797	0.17926076	-0.21151945	0.20624323	-0.15490308	0.14648625	0.22656243	-0.064276	-0.1184787	-0.094630204	-0.19953991	0.061591886	0.14460845	-0.016831927	-0.18083462	-0.013555859	-0.01326222	-0.11350143	0.15753111	0.0727727	-0.121362306	0.2021409	-0.10577987	0.047530703	0.16353664	0.09024511	-0.15213825	-0.1678896	0.12667522	-0.052979074	-0.1716391	-0.23821819	0.13794972	-0.12896067	-0.17693734	0.049892325	-0.08580564	0.0017809405	-0.09291831	0.06442326	-0.11278926	0.21446116	0.041986242	-0.07898563	-0.062045813	-0.10527513	-0.065039635	0.1389609	-0.119947255	0.07138318	0.07230376	0.16435312	0.0328917	-0.04816594	-0.05821372	0.074199066	-0.22627072
BFO:0000182	-0.1301269	-0.12129096	-0.14905505	-0.09727464	0.13019022	-0.05571518	0.06020412	0.017977905	0.031980027	0.05306239	0.18225412	-0.056674704	-0.02102122	0.11839846	0.042280696	-0.1258072	0.10393021	0.05828952	0.17166969	-0.11999783	0.019658031	-0.13526544	-0.1043883	0.14806533	-0.19293153	0.14987631	0.14904134	-0.07532506	0.17833997	-0.11597286	0.008211276	-0.026125364	-0.01900321	0.07352966	-0.0473341	-0.0066327816	0.16749941	0.07723585	-0.010506111	0.022888143	-0.0076787155	0.010759269	-0.06465801	-0.0014994389	-0.051967867	0.0836984	0.18645802	-0.08742435	-0.06305754	0.026635662	0.07232996	-0.09613519	-0.051393077	0.017531592	0.15817103	-0.12320498	0.13291946	0.09686864	0.05857978	0.12627724	-0.015790235	0.055768754	-0.08732531	-0.07835007	-0.12301366	0.13177131	-0.14355533	-0.016239446	0.10390421	-0.16882601	0.021637883	-0.1423519	-0.16551432	-0.04024803	-0.14377268	-0.027803373	0.10909228	0.005449703	-0.037313577	0.02702971	0.01431973	-0.08413347	-0.08113543	-0.0837673	-0.12617853	0.07865174	0.029199462	-0.12916864	0.13508342	0.036104593	0.05490315	-0.19261095	0.06305941	-0.07490895	0.12891118	-0.10971402	-0.10505846	-0.047642965	0.13024314	0.07434316
BFO:0000144	0.05731061	0.118781134	0.014461204	0.04552684	-0.15680578	-0.02826585	0.12388133	0.108332634	0.16109943	-0.18703805	0.09391818	0.14105019	-0.085147455	0.03355598	-0.040771708	0.055990893	-0.074312024	0.14743003	-0.10151173	-0.14807631	0.022563508	0.09414571	0.11903719	-0.05056986	-0.13304207	-0.12123293	0.12977342	0.017937103	-0.018025292	-0.027029954	0.081701994	0.051066663	0.005972395	0.18698795	0.043109998	0.07385856	0.1509534	-0.08979591	-0.06859647	0.028745273	-0.14033075	0.029283162	-0.012951075	0.122958995	0.14703417	0.02456256	0.10253097	0.1374104	-0.06532378	-0.032703236	0.07109701	-0.016930616	0.035147157	-0.09933348	-0.10228818	0.08758856	-0.1168488	-0.11656118	-0.06298139	0.06276756	0.012063122	0.11058548	-0.16682999	0.047654513	0.0738117	0.116953984	-0.0616966	-0.039478995	-0.20817745	-0.12925881	-0.10786485	-0.04928681	-0.18763635	0.17178284	-0.044502676	-0.1285272	-0.042601492	0.12465255	0.11243757	-0.051553603	-0.08515805	-0.030848213	-0.049593285	0.12130826	-0.05512148	-0.10387148	0.08013432	0.0802668	-0.109616004	-0.090180464	0.18009353	-0.117364176	-0.06344284	0.11104498	0.13249454	-0.05589971	0.091979764	0.11157032	0.04740873	-0.052576616
BFO:0000023	0.034801062	0.12195274	0.08232295	-0.030552818	-0.04076252	0.1175284	-0.095190085	-0.06612264	0.14638084	-0.009736155	-0.13553949	0.15221594	0.090005234	-0.071294874	-0.06844217	0.14094563	0.115833305	-0.014808474	0.03272344	-0.1366536	0.02753941	0.024710264	0.13991968	0.13489704	-0.15912053	0.14680903	-0.086581364	-0.084351376	-0.07379552	0.10498251	0.04589247	0.016916115	-0.082163215	-0.010861715	0.12410991	0.037096914	0.0045067267	-0.0630977	-0.15368684	0.14214575	-0.0029960298	-0.025681252	0.13329779	0.13739681	0.047678582	0.042953216	0.009245866	0.035096794	-0.11311446	-0.0863395	0.16276996	0.13125235	-0.06602164	-0.15125243	-0.038773764	-0.12912081	-0.0029467568	0.14667153	-0.05013723	-0.16088863	0.048639722	0.04594676	-0.13970962	0.07417568	-0.0074431035	0.068273954	-0.13361402	0.049323134	0.15934463	-0.10631439	-0.07456547	0.13461424	-0.007462627	-0.11213931	-0.16680081	0.17739221	-0.15363741	-0.10213278	0.060290847	0.025213001	-0.15521324	-0.14847684	0.14578578	0.06855054	0.14066762	-0.113971435	-0.046629503	-0.16199999	-0.10020131	-0.023275083	-0.028328279	0.049861107	-0.10308598	-0.03779509	-0.02878764	-0.09363425	0.08918117	-0.06509856	0.11728892	-0.015782066
BFO:0000145	0.032009088	0.0210483	-0.108718485	0.01326049	-0.08758846	0.09557311	0.06960235	-0.018137533	0.12361072	0.029873868	0.13525812	0.023452878	0.16709018	0.065056674	0.054000035	0.06462515	-0.10954109	0.050166603	-0.035913028	0.14400654	0.113226034	0.06410282	-0.17156176	-0.13771826	0.006315367	-0.14178428	-0.040119257	0.054388173	0.18065271	0.0007584889	-0.03838262	-0.18115889	0.012694674	-0.117380545	-0.0990194	-0.0014523572	0.035841092	0.069353	0.11970478	0.012905373	-0.088011414	-0.012358589	0.16233993	0.06542516	-0.022232415	-0.033102326	-0.02754912	0.13271247	-0.02804532	0.03266994	0.067898795	-0.018645296	-0.059762415	-0.08005693	-0.06403483	-0.098522864	-0.061892103	0.07315939	-0.17758267	-0.108563185	-0.109434575	0.101694845	0.16665745	0.043245953	-0.1395651	0.13996616	-0.15483226	-0.03817883	0.19883887	-0.046208937	0.13473481	-0.16080463	0.10104337	0.07141438	-0.16806397	-0.005523019	-0.013368603	0.017899252	-0.11556595	-0.14741647	-0.06709719	-0.014919025	0.08335082	0.03000607	-0.10808124	-0.15516455	-0.097398944	0.104419716	0.10853255	0.1401125	0.10453492	-0.08692638	0.14500561	-0.053554844	0.13481225	-0.012095257	-0.13104263	-0.10447517	0.05323505	0.19437262
BFO:0000024	-0.052862745	0.030866656	0.12171817	0.07786743	0.019999582	-0.17788844	-0.057935495	0.041065387	0.021764059	-0.0708237	0.020537898	-0.10208045	-0.03271664	0.06411557	0.018358922	-0.13861652	-0.08726303	0.13750759	-0.113895334	-0.026095629	0.12614833	0.027098939	0.0080296295	-0.2097591	-0.015185729	-0.16636296	0.09391721	-0.16071038	-0.10708594	-0.045908824	0.012164147	0.11419627	0.12656769	-0.08321536	0.0061808084	-0.09970384	0.06089927	0.15685992	0.09223439	-0.10909238	-0.087599896	0.10436496	-0.08012908	0.20875968	-0.013173688	0.014607864	-0.14966227	-0.021209843	0.029385626	0.17138508	-0.14807467	0.0158839	-0.09793177	-0.031764086	0.0751141	0.09549351	-0.12413103	0.20005938	0.015724825	0.023280706	0.14102958	-0.075354256	-0.12331493	-0.03146272	0.14533718	-0.12062337	0.19245112	0.065153696	0.082031235	0.09934577	-0.010231654	-0.03133213	-0.039576884	-0.0926156	0.061170075	-0.12714933	0.17068027	0.09260641	-0.030134374	0.007239907	0.0040918193	0.14708759	-0.10477756	-0.016091736	0.033882875	0.12695783	-0.10503983	0.013094589	0.05446722	-0.11721325	-0.10189567	-0.12185641	-0.042416576	-0.09123383	-0.13262539	0.11631787	-0.16387054	-0.10039549	0.106654406	0.03997868
BFO:0000146	-0.00077091996	0.11833088	-0.16574249	0.0016974182	-0.13503957	-0.07750403	0.00014185341	0.13121063	0.1443235	0.18615954	-0.11515567	0.15656254	-0.15573503	0.045860205	0.17284109	-0.028685233	-0.10295579	-0.0380704	-0.13590202	0.05975693	0.0879166	0.08369683	0.023347856	0.055791445	-0.010598472	0.052948747	-0.0034977987	-0.01361255	0.020377887	-0.14556845	0.050111875	0.15754123	-0.08953398	-0.02640939	-0.14511667	-0.11954327	0.12726857	-0.03864134	-0.16842543	-0.08703487	0.117633805	-0.013533935	0.05618154	-0.04188451	0.13508728	-0.16623102	0.057959884	0.054118652	0.097475216	0.05536505	-0.00649554	-0.10505601	0.12708674	0.142776	0.0420802	-0.15118293	-0.015483755	-0.05284307	-0.037452925	-0.14242585	-0.09154972	0.064187646	0.13686356	-0.1393542	-0.040003154	-0.03867285	0.07155077	0.13797528	-0.02627423	-0.01409122	-0.06829735	-0.14428742	-0.15827958	0.00050981535	0.11905074	-0.080064096	-0.093349576	-0.1686645	-0.12907219	0.06389481	0.021565426	0.14412098	0.04321295	-0.056965556	-0.036044322	0.19111156	0.16193634	0.028081723	0.07665027	-0.07743842	-0.11015923	-0.099311896	-0.05797628	-0.1510145	-0.08409845	-0.08217801	0.027347924	-0.0503612	-0.06390219	-0.060558695
BFO:0000140	0.13932614	-0.059838593	-0.06155408	-0.024628984	-0.08653424	-0.021185834	-0.11405357	0.17213686	0.033482634	0.024524475	0.10026653	0.11615647	-0.14038078	-0.014198255	0.093661524	-0.16566086	-0.13987362	-0.073063515	-0.13642505	-0.011197888	0.013233071	0.025771063	0.0031694155	0.13918833	-0.1220675	0.07101926	-0.04930915	0.08902443	0.056932833	-0.16366023	0.021022016	0.16439758	0.10912071	0.10452428	-0.17660977	-0.13718289	-0.0895885	-0.044442166	-0.12901168	0.16050936	-0.15407309	0.005336788	0.034153447	-0.047043096	-0.056391727	-0.0659854	-0.00015950025	0.031539004	-0.06845203	-0.06345988	0.058999024	-0.1658581	0.07786324	-0.09792368	0.047461055	-0.073580354	-0.11778873	0.05979251	-0.12931646	-0.011708716	0.16192478	0.035097875	-0.03949292	-0.06737755	0.03629609	0.062589005	0.14479035	-0.12411791	0.085860595	0.080085106	0.036853213	0.0046472177	-0.09360937	0.054098513	0.056992497	0.17672195	0.008145562	0.027838433	-0.12887052	0.14459944	0.071823075	0.15684165	-0.005265584	0.07708611	-0.062122647	0.12160279	0.1525846	-0.09544854	-0.1389932	-0.002629563	0.06346764	-0.15431705	-0.025506431	-0.16896133	-0.1313039	-0.08109341	0.1465593	-0.15412715	0.028889034	-0.1512019
BFO:0000020	0.11744935	0.0696965	0.06902058	0.037586596	0.15197514	0.14962754	0.03931842	-0.13904014	0.013794656	-0.09629069	0.0048868344	-0.06177862	0.12592639	-0.03249522	0.069526486	-0.06829408	-0.019139789	0.09459282	-0.025705446	-0.11563996	-0.037197553	0.0075019784	0.0868556	0.14179805	-0.013217149	0.17267706	0.04161251	0.079112284	-0.0026661966	-0.1827436	-0.07902518	0.1325728	0.020121705	-0.10269601	0.04017713	-0.08573157	-0.023178393	-0.10300126	0.14417836	-0.16817021	-0.08788478	-0.036754567	0.051240094	-0.16442278	0.07353931	-0.057907425	0.12576059	-0.06959127	-0.09209774	0.07836933	0.15412165	-0.15214737	0.036408223	-0.0865928	-0.040298533	-0.15288556	-0.12614879	-0.14894842	-0.036606096	-0.08506334	-0.058120325	0.037557337	0.048745513	-0.13880904	-0.05804262	-0.10019776	-0.1074979	-0.06491167	0.04818456	-0.014028046	0.10776526	-0.13569984	0.15860888	0.114189275	0.105129294	0.03186003	-0.0813014	-0.08889997	0.1383665	-0.14722584	0.102348246	0.025350632	0.15761864	0.09118962	-0.09570424	0.114780284	0.00281654	-0.05250607	0.11937315	0.06164298	-0.069543794	-0.16452931	0.11069814	0.1641163	0.11606957	-0.15767495	-0.042352017	-0.10962436	-0.14376485	-0.07781888
BFO:0000141	0.13679042	-0.16298646	-0.016259633	-0.10432676	0.0051538884	0.09703784	0.15462583	0.002712042	-0.021006154	-0.123389535	0.018702554	-0.15125233	0.10545211	0.034948617	-0.10108677	-0.16497692	-0.0836558	0.064086564	0.040038157	-0.048999254	0.02680071	-0.13106225	0.08053728	-0.023644436	-0.06749234	0.04840152	-0.14780404	0.124582574	-0.030412221	-0.05187474	-0.0032468182	-0.13200317	0.09906977	0.14780018	0.12444662	-0.062472507	-0.06311901	0.014530201	0.08227963	0.07184277	0.005509231	-0.1385696	0.009924335	0.0075037633	0.0753653	0.014531011	-0.060148835	-0.1626862	-0.16092935	0.015584402	-0.099952444	-0.077037424	0.13932468	-0.11560778	-0.08993366	0.021695763	-0.06566271	-0.045411102	-0.047448672	-0.15079068	-0.109645195	-0.08097518	0.02276111	0.09577225	0.13263841	0.160742	-0.14262372	0.15243635	0.112335056	-0.09591022	-0.111956656	-0.10510476	0.16543604	-0.013850902	-0.071262114	0.1581242	0.1516518	0.13845564	-0.1585472	-0.07719707	-0.06355897	0.111323066	0.07059658	-0.14598718	-0.16208303	-0.10462294	0.103531845	0.08448291	0.0013837946	0.04413496	-0.006228478	0.14782718	0.057809398	-0.104319125	-0.120797165	0.05694556	0.03180782	-0.12566149	0.12784381	-0.02101197
BFO:0000142	0.13529743	-0.10521746	0.105387256	0.08965088	0.08017547	-0.09341095	-0.13282168	0.019006282	0.096686475	0.13113318	-0.01996405	0.029291894	0.076350406	-0.07137794	-0.015509926	-0.07984376	-0.019609628	-0.08520397	0.08104834	0.10086752	0.011759372	0.12212794	-0.008962007	-0.094660975	0.11194134	0.12952429	-0.15030317	0.16206491	-0.0990749	0.0052182837	-0.12213907	0.12303408	-0.041810505	-0.114191286	-0.09904178	0.07175062	-0.05073339	0.0014270378	-0.02542932	-0.035865463	0.14018796	0.17141265	0.12644623	0.0025559044	0.16155703	0.1460606	-0.1609885	-0.10967451	0.14901708	0.05394441	0.06358327	0.10728371	-0.11106823	-0.0040918225	-0.10708476	-0.08110705	-0.02808407	0.15847887	-0.056976877	-0.0949093	0.07887031	-0.10417752	0.045451514	0.09681217	-0.007286782	0.049611032	0.030355748	0.043063477	-0.040562354	-0.06384578	-0.08384984	-0.05594332	0.018449051	0.06818245	-0.07047685	-0.0074524716	-0.16647813	0.120531484	-0.19337091	0.17449825	-0.096384645	0.17531271	-0.13772844	-0.016702902	0.06516121	0.010994034	0.18336008	-0.124773026	-0.15152708	0.12794146	0.18398802	0.06795438	0.13610746	0.10424074	-0.06443787	0.08254855	-0.07372554	0.021252224	0.008886145	-0.0762699
owl:Thing	-0.0041900976	0.03943138	-0.052772388	-0.0106898155	0.053875603	0.12203734	-0.16369218	-0.17958198	-0.1301763	0.09622619	0.0702609	0.09302271	0.10096415	0.12632878	-0.15368725	-0.055477094	-0.19104126	-0.06447843	0.1465481	-0.015610583	0.11430948	-0.09880682	0.01570218	-0.06657112	0.07734845	0.002440009	-0.012249083	-0.037084483	-0.124994874	0.0020740852	-0.080718525	-0.06644028	-0.121240914	-0.17370231	-0.019804176	0.10988866	-0.09076224	-0.098026656	-0.12770174	0.13994731	-0.0396234	0.07111361	0.04363327	-0.091414765	-0.072915725	0.018658968	0.13715865	-0.08967986	-0.114006355	-0.12782285	-0.06318057	0.13768037	-0.042980723	-0.06411319	0.08940992	-0.105780825	0.08655845	-0.038445044	0.053091943	0.054856107	0.008408891	0.011776568	0.106400274	-0.07141706	0.12788074	-0.036055584	0.1383631	-0.18034826	-0.113540776	-0.11298165	-0.0073620137	-0.00028337652	-0.012590112	0.11187026	0.044878777	-0.15205257	-0.07158949	-0.022012504	-0.1082996	0.015187937	0.00018677888	-0.10774207	0.04388444	0.019349772	-0.16183248	0.17845052	-0.18252124	0.1306021	-0.04892864	-0.18997999	0.10949909	0.19504133	0.07867188	0.061656613	0.14445768	-0.046410307	0.08451785	0.046830002	-0.16894571	-0.024776291
