	0	1	2	3	4	5	6	7	8	9	10	11	12	13	14	15	16	17	18	19	20	21	22	23	24	25	26	27	28	29	30	31	32	33	34	35	36	37	38	39	40	41	42	43	44	45	46	47	48	49	50	51	52	53	54	55	56	57	58	59	60	61	62	63	64	65	66	67	68	69	70	71	72	73	74	75	76	77	78	79	80	81	82	83	84	85	86	87	88	89	90	91	92	93	94	95	96	97	98	99
apple	0.12113901	-0.10878129	-0.1188595	-0.049955294	0.08135568	0.010098708	0.033684567	-0.16211842	0.009499068	-0.10714768	-0.01851339	0.0020387573	0.16261676	-0.13587333	-0.03575565	0.10197916	0.053567916	-0.01224945	-0.009627662	0.059688535	-0.13276248	-0.060025066	-0.078050986	-0.05307719	0.10046771	0.052133992	-0.081412606	-0.03432806	0.16142482	-0.09841265	0.105052285	-0.11938555	0.16330542	-0.16021171	-0.15709244	-0.14440238	0.08409744	0.061987493	0.10725244	-0.09390189	0.028039832	-0.13368264	0.092115216	-0.15858735	0.1620589	0.082916565	0.123217404	-0.11091152	-0.13215414	-0.057008337	-0.12211384	-0.056226924	-0.15382612	-0.06545909	-0.14213721	-0.041437812	-0.13958572	-0.102720685	-0.09062304	0.10917756	-0.19251746	0.042995006	0.04296654	-0.037723105	0.01758187	0.051941797	-0.116088115	-0.13033766	0.15013859	-0.011931341	0.09838155	-0.17859662	0.16552448	-0.04184454	0.011687931	-0.07180719	-0.030583523	0.030923644	0.05314407	-0.06577282	0.00521653	-0.068317235	-0.007439534	-0.15105787	-0.13404763	0.035635617	-0.02295828	-0.06863892	-0.08075229	0.13202064	-0.023139423	0.09938878	0.06106804	0.08317687	0.05449533	0.028216045	0.15693375	-0.14012738	-0.07684828	0.14330962
banana	-0.064423114	0.11772419	0.01449501	0.086531185	0.0006379921	0.02864378	0.049022235	-0.009894928	0.17230444	-0.14509363	0.08843505	0.17962536	0.06699771	0.09606023	-0.007840073	0.120676965	0.05159299	0.04083944	0.04916108	-0.10341506	0.07942217	-0.10567324	0.08084566	-0.06369246	-0.17336375	0.112298205	0.07194364	0.08862	0.15375084	0.04053377	0.09682408	0.03841414	-0.14419273	0.15422747	0.024537347	0.08722454	0.03189844	0.050969824	-0.11355352	0.026850594	-0.0056585753	0.15219763	-0.124415785	-0.10395111	0.08246732	0.10642184	0.13364899	0.10529901	-0.100399174	0.00872337	0.13245486	-0.09976407	0.049714364	-0.007256408	-0.029161029	0.14302836	-0.06662676	-0.14503734	-0.048755404	0.12380392	0.1249081	0.0881685	-0.17573556	-0.103390485	-0.15089811	-0.08606244	0.06089734	-0.16981608	-0.1570649	-0.013892301	-0.12815045	0.016672723	-0.11665865	0.10359675	-0.12500288	0.123353995	0.029283378	-0.01749392	0.06043188	0.107143015	0.020924063	-0.109810635	0.07951481	-0.041936796	0.06396108	-0.13104385	0.03683216	0.14273493	-0.13353392	0.14809592	0.106186956	-0.11807005	0.053762045	-0.009791971	0.13098158	0.11970294	0.016631952	-0.054789044	0.11395579	0.15240295
orange	-0.056778386	-0.07904108	-0.031957503	-0.038393255	-0.035287812	0.1288545	-0.119036935	0.04189476	-0.017886108	0.09447822	0.1064985	0.15319036	0.039839495	-0.08042125	-0.13785301	0.10894106	-0.085273914	0.13173419	0.06904025	0.12613574	-0.06988478	0.09396536	-0.15552181	0.07413798	-0.14426228	0.014918961	-0.098218024	-0.07939675	-0.079655044	0.073537976	-0.101019725	0.050232608	-0.1625058	0.102687076	-0.006102665	-0.12738447	0.20414396	0.042009618	-0.14354564	-0.047366522	-0.121026024	0.035035953	0.06930815	0.06403103	0.081241846	-0.1901455	-0.09686678	0.11926052	0.030920506	0.08096528	-0.12226326	-0.05524978	-0.0039842725	-0.05262224	0.18486717	0.06253237	-0.03624198	-0.029126108	-0.10721446	-0.0094857	-0.13562252	0.072209954	0.14853324	0.1928345	-0.08896183	0.09486566	0.13564083	-0.038020603	0.08963195	0.06354173	-0.17912678	0.029492203	-0.1112221	-0.012176482	-0.128877	-0.12691483	-0.11125222	0.08941966	-0.04508599	-0.028139869	-0.1615123	-0.039518554	-0.09357939	0.030674536	0.04203932	0.16043343	-0.05455162	0.11104935	0.0042949268	-0.08187001	0.13716923	-0.06551322	-0.08924499	0.12682004	0.16514541	-0.010478324	-0.14088997	0.099423155	-0.07731992	-0.0114864465
pear	0.11235782	0.051297337	0.108881444	-0.13175869	-0.14318283	-0.022465944	0.155819	-0.09974578	-0.090994455	0.14615087	-0.05733879	0.10093506	0.115477316	0.082341336	-0.06524897	-0.07374864	0.16101556	-0.084336154	0.019198911	0.099508986	0.07777834	0.15697208	0.0933816	0.053251725	-0.11561163	0.052552193	-0.10755818	-0.027844576	-0.070499435	-0.07695339	0.12130043	-0.053757437	-0.13152857	-0.06031787	0.02476854	-0.12511787	0.1384218	0.02552184	-0.05465455	0.09223571	0.02656781	0.15196905	-0.038843602	0.028539548	0.112145215	-0.1150278	0.116665	0.041931666	-0.029986456	0.15687802	0.02433277	-0.15606144	-0.13174528	-0.012635273	0.1323963	-0.033708163	0.16089162	0.0912832	-0.15061276	-0.015431225	0.13490954	-0.13271426	0.035914127	0.072651364	0.006923389	-0.06392771	-0.1005712	-0.1367975	0.15122359	0.116842866	0.032416787	0.15290144	-0.052799508	0.021593075	-0.058882434	0.13330813	-0.10652533	-0.0006455653	-0.14241321	-0.028587209	-0.12775072	-0.114468455	0.16052537	0.14724547	0.113781594	0.15191261	0.071278565	-0.06439823	-0.04717086	0.074089095	-0.1371993	-0.03856658	0.12915388	-0.014800434	0.004966333	-0.13093896	-0.02421143	-0.15811606	-0.0467888	-0.0047659
kiwi	0.16569175	-0.09592902	0.058273904	0.13624331	-0.12427922	0.049783193	-0.09523571	0.00036469262	0.107173026	-0.04800346	0.02113582	-0.022231935	0.09346961	-0.028825702	0.126674	0.14913383	-0.030378822	0.10319346	-0.18574254	-0.16490123	0.093818195	0.1358613	0.03753471	0.021517476	-0.032337315	0.071598746	-0.14177646	0.076882444	-0.099960074	0.060823325	0.09810909	0.11268738	-0.0847977	0.08660986	-0.16575663	-0.07418165	-0.07563192	-0.12040015	-0.14163518	-0.047342956	0.083467886	0.07066828	-0.07087254	-0.10510392	-0.002512287	-0.10488623	-0.09236598	-0.065544546	0.0019750667	0.058811788	0.07624391	0.12523176	-0.00078198785	0.15198918	-0.13511856	-0.076312274	0.024030007	0.0047836117	-0.004201952	0.020964168	0.07053457	0.15436998	0.024931591	0.038676027	-0.043970626	-0.0014740456	0.07950053	-0.16516136	0.041839805	-0.10034122	-0.059161566	0.094645955	-0.16454011	0.15635969	0.106489286	-0.079906516	-0.12383573	0.10251066	0.1809976	0.12619713	0.13709438	0.08071886	-0.10059563	0.10801486	0.17194447	0.09700416	0.10679977	0.17748888	0.06747474	-0.09641386	-0.12931943	-0.09474427	-0.10617851	-0.10079818	0.014615821	-0.09368179	-0.07157198	0.09984546	0.12878117	-0.02863277
